<?xml version="1.0"?>
<opencv_storage>
<cascade>
  <stageType>BOOST</stageType>
  <featureType>HAAR</featureType>
  <height>40</height>
  <width>80</width>
  <stageParams>
    <boostType>GAB</boostType>
    <minHitRate>9.9900001287460327e-01</minHitRate>
    <maxFalseAlarm>5.0000000000000000e-01</maxFalseAlarm>
    <weightTrimRate>9.4999999999999996e-01</weightTrimRate>
    <maxDepth>1</maxDepth>
    <maxWeakCount>100</maxWeakCount></stageParams>
  <featureParams>
    <maxCatCount>0</maxCatCount>
    <featSize>1</featSize>
    <mode>ALL</mode></featureParams>
  <stageNum>20</stageNum>
  <stages>
    <!-- stage 0 -->
    <_>
      <maxWeakCount>2</maxWeakCount>
      <stageThreshold>9.7772153094410896e-03</stageThreshold>
      <weakClassifiers>
        <_>
          <internalNodes>
            0 -1 47 -9.7776018083095551e-03</internalNodes>
          <leafValues>
            -9.4594591856002808e-01 7.1717172861099243e-01</leafValues></_>
        <_>
          <internalNodes>
            0 -1 44 1.0427215602248907e-03</internalNodes>
          <leafValues>
            -6.2194144725799561e-01 9.5572316646575928e-01</leafValues></_></weakClassifiers></_>
    <!-- stage 1 -->
    <_>
      <maxWeakCount>3</maxWeakCount>
      <stageThreshold>-4.2574688792228699e-02</stageThreshold>
      <weakClassifiers>
        <_>
          <internalNodes>
            0 -1 35 -4.4631113996729255e-04</internalNodes>
          <leafValues>
            9.3846154212951660e-01 -3.5211268067359924e-01</leafValues></_>
        <_>
          <internalNodes>
            0 -1 32 -2.7014585211873055e-03</internalNodes>
          <leafValues>
            9.0916383266448975e-01 -4.7697347402572632e-01</leafValues></_>
        <_>
          <internalNodes>
            0 -1 27 -1.3990444131195545e-03</internalNodes>
          <leafValues>
            8.5029309988021851e-01 -5.0406277179718018e-01</leafValues></_></weakClassifiers></_>
    <!-- stage 2 -->
    <_>
      <maxWeakCount>3</maxWeakCount>
      <stageThreshold>-3.0534291267395020e-01</stageThreshold>
      <weakClassifiers>
        <_>
          <internalNodes>
            0 -1 0 9.5068797236308455e-05</internalNodes>
          <leafValues>
            -5.0000000000000000e-01 6.8181818723678589e-01</leafValues></_>
        <_>
          <internalNodes>
            0 -1 14 -1.4229848980903625e-01</internalNodes>
          <leafValues>
            9.3769514560699463e-01 -4.2526084184646606e-01</leafValues></_>
        <_>
          <internalNodes>
            0 -1 30 -3.6007459275424480e-03</internalNodes>
          <leafValues>
            7.9245430231094360e-01 -5.6190025806427002e-01</leafValues></_></weakClassifiers></_>
    <!-- stage 3 -->
    <_>
      <maxWeakCount>4</maxWeakCount>
      <stageThreshold>-7.1331864595413208e-01</stageThreshold>
      <weakClassifiers>
        <_>
          <internalNodes>
            0 -1 22 5.4523702710866928e-03</internalNodes>
          <leafValues>
            -6.1904764175415039e-01 6.5957444906234741e-01</leafValues></_>
        <_>
          <internalNodes>
            0 -1 72 -1.4725460205227137e-03</internalNodes>
          <leafValues>
            -6.0729682445526123e-01 6.1916810274124146e-01</leafValues></_>
        <_>
          <internalNodes>
            0 -1 53 8.0170430010184646e-04</internalNodes>
          <leafValues>
            -4.0346074104309082e-01 9.5367538928985596e-01</leafValues></_>
        <_>
          <internalNodes>
            0 -1 46 8.9250202290713787e-04</internalNodes>
          <leafValues>
            -3.6213555932044983e-01 1.</leafValues></_></weakClassifiers></_>
    <!-- stage 4 -->
    <_>
      <maxWeakCount>4</maxWeakCount>
      <stageThreshold>-9.6344023942947388e-01</stageThreshold>
      <weakClassifiers>
        <_>
          <internalNodes>
            0 -1 8 -8.7352309492416680e-05</internalNodes>
          <leafValues>
            -5.7142859697341919e-01 6.3829785585403442e-01</leafValues></_>
        <_>
          <internalNodes>
            0 -1 6 -5.1705009536817670e-04</internalNodes>
          <leafValues>
            -6.0743981599807739e-01 6.1655902862548828e-01</leafValues></_>
        <_>
          <internalNodes>
            0 -1 29 1.7516382038593292e-02</internalNodes>
          <leafValues>
            -5.5232650041580200e-01 6.7764031887054443e-01</leafValues></_>
        <_>
          <internalNodes>
            0 -1 39 -5.8131115511059761e-03</internalNodes>
          <leafValues>
            9.1957354545593262e-01 -4.6221217513084412e-01</leafValues></_></weakClassifiers></_>
    <!-- stage 5 -->
    <_>
      <maxWeakCount>2</maxWeakCount>
      <stageThreshold>7.2361037135124207e-02</stageThreshold>
      <weakClassifiers>
        <_>
          <internalNodes>
            0 -1 9 -2.0624222233891487e-03</internalNodes>
          <leafValues>
            -6.6666668653488159e-01 6.0000002384185791e-01</leafValues></_>
        <_>
          <internalNodes>
            0 -1 63 3.0615301511716098e-05</internalNodes>
          <leafValues>
            7.5763976573944092e-01 -5.2763897180557251e-01</leafValues></_></weakClassifiers></_>
    <!-- stage 6 -->
    <_>
      <maxWeakCount>4</maxWeakCount>
      <stageThreshold>-2.4526055157184601e-01</stageThreshold>
      <weakClassifiers>
        <_>
          <internalNodes>
            0 -1 65 -2.8923788340762258e-04</internalNodes>
          <leafValues>
            -7.5757575035095215e-01 5.9223300218582153e-01</leafValues></_>
        <_>
          <internalNodes>
            0 -1 69 4.5359879732131958e-04</internalNodes>
          <leafValues>
            4.5110231637954712e-01 -9.0084308385848999e-01</leafValues></_>
        <_>
          <internalNodes>
            0 -1 57 -1.4314658939838409e-02</internalNodes>
          <leafValues>
            9.3510198593139648e-01 -4.5671275258064270e-01</leafValues></_>
        <_>
          <internalNodes>
            0 -1 20 -2.2207372239790857e-04</internalNodes>
          <leafValues>
            -7.9079288244247437e-01 5.2006226778030396e-01</leafValues></_></weakClassifiers></_>
    <!-- stage 7 -->
    <_>
      <maxWeakCount>3</maxWeakCount>
      <stageThreshold>6.5152609348297119e-01</stageThreshold>
      <weakClassifiers>
        <_>
          <internalNodes>
            0 -1 7 6.4989732345566154e-04</internalNodes>
          <leafValues>
            5.2212387323379517e-01 -1.</leafValues></_>
        <_>
          <internalNodes>
            0 -1 11 -1.4573636651039124e-01</internalNodes>
          <leafValues>
            7.5692188739776611e-01 -5.0825673341751099e-01</leafValues></_>
        <_>
          <internalNodes>
            0 -1 25 -1.8849174957722425e-03</internalNodes>
          <leafValues>
            7.9653590917587280e-01 -6.2751972675323486e-01</leafValues></_></weakClassifiers></_>
    <!-- stage 8 -->
    <_>
      <maxWeakCount>5</maxWeakCount>
      <stageThreshold>2.8514547273516655e-02</stageThreshold>
      <weakClassifiers>
        <_>
          <internalNodes>
            0 -1 3 2.1038727936684154e-05</internalNodes>
          <leafValues>
            -4.7169810533523560e-01 7.3493975400924683e-01</leafValues></_>
        <_>
          <internalNodes>
            0 -1 61 4.4719129800796509e-03</internalNodes>
          <leafValues>
            -3.8749769330024719e-01 9.3413990736007690e-01</leafValues></_>
        <_>
          <internalNodes>
            0 -1 37 7.0332703180611134e-03</internalNodes>
          <leafValues>
            -5.4519194364547729e-01 8.0521911382675171e-01</leafValues></_>
        <_>
          <internalNodes>
            0 -1 58 -3.7272498011589050e-03</internalNodes>
          <leafValues>
            8.1133306026458740e-01 -5.5482548475265503e-01</leafValues></_>
        <_>
          <internalNodes>
            0 -1 49 9.7599681466817856e-03</internalNodes>
          <leafValues>
            -5.5519264936447144e-01 7.8108990192413330e-01</leafValues></_></weakClassifiers></_>
    <!-- stage 9 -->
    <_>
      <maxWeakCount>3</maxWeakCount>
      <stageThreshold>4.0378589183092117e-03</stageThreshold>
      <weakClassifiers>
        <_>
          <internalNodes>
            0 -1 71 1.2143261265009642e-03</internalNodes>
          <leafValues>
            5.5963301658630371e-01 -9.2592591047286987e-01</leafValues></_>
        <_>
          <internalNodes>
            0 -1 70 -4.6467533684335649e-04</internalNodes>
          <leafValues>
            -8.2368469238281250e-01 4.7790753841400146e-01</leafValues></_>
        <_>
          <internalNodes>
            0 -1 68 8.9466985082253814e-04</internalNodes>
          <leafValues>
            4.5205625891685486e-01 -9.0167528390884399e-01</leafValues></_></weakClassifiers></_>
    <!-- stage 10 -->
    <_>
      <maxWeakCount>4</maxWeakCount>
      <stageThreshold>-3.6672753095626831e-01</stageThreshold>
      <weakClassifiers>
        <_>
          <internalNodes>
            0 -1 16 -2.2492618300020695e-03</internalNodes>
          <leafValues>
            8.2608693838119507e-01 -3.1343284249305725e-01</leafValues></_>
        <_>
          <internalNodes>
            0 -1 19 4.3960202485322952e-02</internalNodes>
          <leafValues>
            -3.4297740459442139e-01 9.2461282014846802e-01</leafValues></_>
        <_>
          <internalNodes>
            0 -1 55 6.9656976847909391e-05</internalNodes>
          <leafValues>
            -4.1683346033096313e-01 8.4669464826583862e-01</leafValues></_>
        <_>
          <internalNodes>
            0 -1 42 -1.4092157362028956e-03</internalNodes>
          <leafValues>
            7.4920195341110229e-01 -5.6107407808303833e-01</leafValues></_></weakClassifiers></_>
    <!-- stage 11 -->
    <_>
      <maxWeakCount>3</maxWeakCount>
      <stageThreshold>2.9078984260559082e-01</stageThreshold>
      <weakClassifiers>
        <_>
          <internalNodes>
            0 -1 1 -2.4794580531306565e-04</internalNodes>
          <leafValues>
            -7.6470589637756348e-01 6.0784316062927246e-01</leafValues></_>
        <_>
          <internalNodes>
            0 -1 18 1.0185004211962223e-03</internalNodes>
          <leafValues>
            5.1464438438415527e-01 -6.7059093713760376e-01</leafValues></_>
        <_>
          <internalNodes>
            0 -1 10 -9.5958536257967353e-04</internalNodes>
          <leafValues>
            -7.4295932054519653e-01 5.4085129499435425e-01</leafValues></_></weakClassifiers></_>
    <!-- stage 12 -->
    <_>
      <maxWeakCount>3</maxWeakCount>
      <stageThreshold>3.6940228939056396e-01</stageThreshold>
      <weakClassifiers>
        <_>
          <internalNodes>
            0 -1 64 -8.6061115143820643e-04</internalNodes>
          <leafValues>
            -6.7567569017410278e-01 6.1616164445877075e-01</leafValues></_>
        <_>
          <internalNodes>
            0 -1 15 3.1446106731891632e-02</internalNodes>
          <leafValues>
            4.6585735678672791e-01 -8.7243425846099854e-01</leafValues></_>
        <_>
          <internalNodes>
            0 -1 62 5.1892751798732206e-05</internalNodes>
          <leafValues>
            6.2567490339279175e-01 -6.4998501539230347e-01</leafValues></_></weakClassifiers></_>
    <!-- stage 13 -->
    <_>
      <maxWeakCount>5</maxWeakCount>
      <stageThreshold>-2.7875438332557678e-01</stageThreshold>
      <weakClassifiers>
        <_>
          <internalNodes>
            0 -1 5 -4.8724742373451591e-04</internalNodes>
          <leafValues>
            -7.4193549156188965e-01 5.6190478801727295e-01</leafValues></_>
        <_>
          <internalNodes>
            0 -1 43 -1.4809114509262145e-04</internalNodes>
          <leafValues>
            8.6428290605545044e-01 -3.8730058073997498e-01</leafValues></_>
        <_>
          <internalNodes>
            0 -1 45 -4.9984897486865520e-04</internalNodes>
          <leafValues>
            -7.7991765737533569e-01 5.1569682359695435e-01</leafValues></_>
        <_>
          <internalNodes>
            0 -1 54 -2.5111425202339888e-04</internalNodes>
          <leafValues>
            9.8361653089523315e-01 -3.9797940850257874e-01</leafValues></_>
        <_>
          <internalNodes>
            0 -1 31 -3.5413403529673815e-03</internalNodes>
          <leafValues>
            8.1844127178192139e-01 -5.2704501152038574e-01</leafValues></_></weakClassifiers></_>
    <!-- stage 14 -->
    <_>
      <maxWeakCount>5</maxWeakCount>
      <stageThreshold>1.1482029408216476e-01</stageThreshold>
      <weakClassifiers>
        <_>
          <internalNodes>
            0 -1 67 1.1849741451442242e-02</internalNodes>
          <leafValues>
            5.3846156597137451e-01 -6.2500000000000000e-01</leafValues></_>
        <_>
          <internalNodes>
            0 -1 59 -7.9454336082562804e-04</internalNodes>
          <leafValues>
            7.4057477712631226e-01 -4.1312664747238159e-01</leafValues></_>
        <_>
          <internalNodes>
            0 -1 28 -2.7750508161261678e-04</internalNodes>
          <leafValues>
            7.5021666288375854e-01 -4.3504023551940918e-01</leafValues></_>
        <_>
          <internalNodes>
            0 -1 48 -6.5300380811095238e-04</internalNodes>
          <leafValues>
            9.0620827674865723e-01 -3.7755826115608215e-01</leafValues></_>
        <_>
          <internalNodes>
            0 -1 23 3.6396860377863050e-04</internalNodes>
          <leafValues>
            -3.5161754488945007e-01 9.5166248083114624e-01</leafValues></_></weakClassifiers></_>
    <!-- stage 15 -->
    <_>
      <maxWeakCount>4</maxWeakCount>
      <stageThreshold>-6.5583622455596924e-01</stageThreshold>
      <weakClassifiers>
        <_>
          <internalNodes>
            0 -1 40 9.6689548809081316e-04</internalNodes>
          <leafValues>
            5.5555558204650879e-01 -8.5714286565780640e-01</leafValues></_>
        <_>
          <internalNodes>
            0 -1 26 -1.1175843246746808e-04</internalNodes>
          <leafValues>
            9.4781446456909180e-01 -4.2032164335250854e-01</leafValues></_>
        <_>
          <internalNodes>
            0 -1 38 -6.5432209521532059e-04</internalNodes>
          <leafValues>
            8.7611895799636841e-01 -4.0386202931404114e-01</leafValues></_>
        <_>
          <internalNodes>
            0 -1 2 -2.6465278863906860e-01</internalNodes>
          <leafValues>
            9.1173017024993896e-01 -3.8720807433128357e-01</leafValues></_></weakClassifiers></_>
    <!-- stage 16 -->
    <_>
      <maxWeakCount>4</maxWeakCount>
      <stageThreshold>-1.6322022676467896e-01</stageThreshold>
      <weakClassifiers>
        <_>
          <internalNodes>
            0 -1 24 1.3121402263641357e-01</internalNodes>
          <leafValues>
            5.3571426868438721e-01 -1.</leafValues></_>
        <_>
          <internalNodes>
            0 -1 66 7.9533550888299942e-05</internalNodes>
          <leafValues>
            4.4435882568359375e-01 -7.2128248214721680e-01</leafValues></_>
        <_>
          <internalNodes>
            0 -1 56 1.4107675815466791e-04</internalNodes>
          <leafValues>
            -5.4497605562210083e-01 7.1112668514251709e-01</leafValues></_>
        <_>
          <internalNodes>
            0 -1 12 -5.5016298574628308e-05</internalNodes>
          <leafValues>
            -5.9831732511520386e-01 6.2790042161941528e-01</leafValues></_></weakClassifiers></_>
    <!-- stage 17 -->
    <_>
      <maxWeakCount>4</maxWeakCount>
      <stageThreshold>3.4877917170524597e-01</stageThreshold>
      <weakClassifiers>
        <_>
          <internalNodes>
            0 -1 17 -2.7849152684211731e-04</internalNodes>
          <leafValues>
            -6.6666668653488159e-01 6.0000002384185791e-01</leafValues></_>
        <_>
          <internalNodes>
            0 -1 51 -5.0973158795386553e-04</internalNodes>
          <leafValues>
            9.0947073698043823e-01 -3.7053963541984558e-01</leafValues></_>
        <_>
          <internalNodes>
            0 -1 4 -7.8017089981585741e-04</internalNodes>
          <leafValues>
            -5.7751351594924927e-01 6.3061994314193726e-01</leafValues></_>
        <_>
          <internalNodes>
            0 -1 34 -4.8215105198323727e-04</internalNodes>
          <leafValues>
            8.6303168535232544e-01 -5.1130110025405884e-01</leafValues></_></weakClassifiers></_>
    <!-- stage 18 -->
    <_>
      <maxWeakCount>4</maxWeakCount>
      <stageThreshold>-1.2171889096498489e-01</stageThreshold>
      <weakClassifiers>
        <_>
          <internalNodes>
            0 -1 43 -1.8112396355718374e-04</internalNodes>
          <leafValues>
            8.8888889551162720e-01 -1.4634145796298981e-01</leafValues></_>
        <_>
          <internalNodes>
            0 -1 36 -6.1013072263449430e-04</internalNodes>
          <leafValues>
            8.7354081869125366e-01 -3.2488349080085754e-01</leafValues></_>
        <_>
          <internalNodes>
            0 -1 41 -3.5547354491427541e-04</internalNodes>
          <leafValues>
            1. -3.3467325568199158e-01</leafValues></_>
        <_>
          <internalNodes>
            0 -1 33 1.5382922720164061e-04</internalNodes>
          <leafValues>
            -3.5105103254318237e-01 7.9316073656082153e-01</leafValues></_></weakClassifiers></_>
    <!-- stage 19 -->
    <_>
      <maxWeakCount>5</maxWeakCount>
      <stageThreshold>1.0693516582250595e-02</stageThreshold>
      <weakClassifiers>
        <_>
          <internalNodes>
            0 -1 50 -5.7330667041242123e-03</internalNodes>
          <leafValues>
            7.6315790414810181e-01 -3.6666667461395264e-01</leafValues></_>
        <_>
          <internalNodes>
            0 -1 21 5.2744418382644653e-02</internalNodes>
          <leafValues>
            5.2329999208450317e-01 -6.1734449863433838e-01</leafValues></_>
        <_>
          <internalNodes>
            0 -1 60 1.4043026021681726e-04</internalNodes>
          <leafValues>
            -3.7339198589324951e-01 9.4061660766601562e-01</leafValues></_>
        <_>
          <internalNodes>
            0 -1 52 -2.6792779681272805e-04</internalNodes>
          <leafValues>
            9.2689526081085205e-01 -3.5349923372268677e-01</leafValues></_>
        <_>
          <internalNodes>
            0 -1 13 4.3421617010608315e-04</internalNodes>
          <leafValues>
            5.9177130460739136e-01 -6.7581552267074585e-01</leafValues></_></weakClassifiers></_></stages>
  <features>
    <_>
      <rects>
        <_>
          0 1 8 11 -1.</_>
        <_>
          4 1 4 11 2.</_></rects>
      <tilted>0</tilted></_>
    <_>
      <rects>
        <_>
          1 1 4 1 -1.</_>
        <_>
          2 2 2 1 2.</_></rects>
      <tilted>1</tilted></_>
    <_>
      <rects>
        <_>
          1 1 60 30 -1.</_>
        <_>
          21 11 20 10 9.</_></rects>
      <tilted>0</tilted></_>
    <_>
      <rects>
        <_>
          1 4 6 9 -1.</_>
        <_>
          4 4 3 9 2.</_></rects>
      <tilted>0</tilted></_>
    <_>
      <rects>
        <_>
          2 1 9 31 -1.</_>
        <_>
          5 1 3 31 3.</_></rects>
      <tilted>0</tilted></_>
    <_>
      <rects>
        <_>
          4 1 8 2 -1.</_>
        <_>
          8 1 4 2 2.</_></rects>
      <tilted>0</tilted></_>
    <_>
      <rects>
        <_>
          4 3 6 22 -1.</_>
        <_>
          6 3 2 22 3.</_></rects>
      <tilted>0</tilted></_>
    <_>
      <rects>
        <_>
          5 3 3 7 -1.</_>
        <_>
          6 3 1 7 3.</_></rects>
      <tilted>0</tilted></_>
    <_>
      <rects>
        <_>
          6 0 3 6 -1.</_>
        <_>
          7 0 1 6 3.</_></rects>
      <tilted>0</tilted></_>
    <_>
      <rects>
        <_>
          9 29 10 8 -1.</_>
        <_>
          9 29 5 4 2.</_>
        <_>
          14 33 5 4 2.</_></rects>
      <tilted>0</tilted></_>
    <_>
      <rects>
        <_>
          11 0 15 3 -1.</_>
        <_>
          16 1 5 1 9.</_></rects>
      <tilted>0</tilted></_>
    <_>
      <rects>
        <_>
          11 0 60 24 -1.</_>
        <_>
          31 8 20 8 9.</_></rects>
      <tilted>0</tilted></_>
    <_>
      <rects>
        <_>
          11 9 1 8 -1.</_>
        <_>
          11 11 1 4 2.</_></rects>
      <tilted>0</tilted></_>
    <_>
      <rects>
        <_>
          12 2 12 2 -1.</_>
        <_>
          15 2 6 2 2.</_></rects>
      <tilted>0</tilted></_>
    <_>
      <rects>
        <_>
          12 3 63 18 -1.</_>
        <_>
          33 9 21 6 9.</_></rects>
      <tilted>0</tilted></_>
    <_>
      <rects>
        <_>
          12 3 50 10 -1.</_>
        <_>
          37 3 25 10 2.</_></rects>
      <tilted>0</tilted></_>
    <_>
      <rects>
        <_>
          13 10 24 16 -1.</_>
        <_>
          13 18 24 8 2.</_></rects>
      <tilted>0</tilted></_>
    <_>
      <rects>
        <_>
          15 20 2 4 -1.</_>
        <_>
          15 20 1 4 2.</_></rects>
      <tilted>1</tilted></_>
    <_>
      <rects>
        <_>
          15 22 8 9 -1.</_>
        <_>
          15 25 8 3 3.</_></rects>
      <tilted>0</tilted></_>
    <_>
      <rects>
        <_>
          16 18 51 22 -1.</_>
        <_>
          33 18 17 22 3.</_></rects>
      <tilted>0</tilted></_>
    <_>
      <rects>
        <_>
          17 24 4 2 -1.</_>
        <_>
          18 25 2 2 2.</_></rects>
      <tilted>1</tilted></_>
    <_>
      <rects>
        <_>
          25 20 34 17 -1.</_>
        <_>
          42 20 17 17 2.</_></rects>
      <tilted>0</tilted></_>
    <_>
      <rects>
        <_>
          28 18 28 18 -1.</_>
        <_>
          42 18 14 18 2.</_></rects>
      <tilted>0</tilted></_>
    <_>
      <rects>
        <_>
          29 18 3 12 -1.</_>
        <_>
          30 18 1 12 3.</_></rects>
      <tilted>0</tilted></_>
    <_>
      <rects>
        <_>
          30 6 47 30 -1.</_>
        <_>
          30 21 47 15 2.</_></rects>
      <tilted>0</tilted></_>
    <_>
      <rects>
        <_>
          30 14 14 12 -1.</_>
        <_>
          30 14 7 6 2.</_>
        <_>
          37 20 7 6 2.</_></rects>
      <tilted>0</tilted></_>
    <_>
      <rects>
        <_>
          30 24 3 1 -1.</_>
        <_>
          31 24 1 1 3.</_></rects>
      <tilted>0</tilted></_>
    <_>
      <rects>
        <_>
          33 10 9 9 -1.</_>
        <_>
          36 10 3 9 3.</_></rects>
      <tilted>0</tilted></_>
    <_>
      <rects>
        <_>
          33 11 3 3 -1.</_>
        <_>
          34 12 1 1 9.</_></rects>
      <tilted>0</tilted></_>
    <_>
      <rects>
        <_>
          33 11 18 15 -1.</_>
        <_>
          39 16 6 5 9.</_></rects>
      <tilted>0</tilted></_>
    <_>
      <rects>
        <_>
          33 14 10 12 -1.</_>
        <_>
          33 14 5 6 2.</_>
        <_>
          38 20 5 6 2.</_></rects>
      <tilted>0</tilted></_>
    <_>
      <rects>
        <_>
          34 3 36 11 -1.</_>
        <_>
          43 3 18 11 2.</_></rects>
      <tilted>0</tilted></_>
    <_>
      <rects>
        <_>
          34 15 10 14 -1.</_>
        <_>
          34 15 5 7 2.</_>
        <_>
          39 22 5 7 2.</_></rects>
      <tilted>0</tilted></_>
    <_>
      <rects>
        <_>
          35 10 3 3 -1.</_>
        <_>
          36 10 1 3 3.</_></rects>
      <tilted>0</tilted></_>
    <_>
      <rects>
        <_>
          35 17 3 3 -1.</_>
        <_>
          36 18 1 1 9.</_></rects>
      <tilted>0</tilted></_>
    <_>
      <rects>
        <_>
          35 19 9 2 -1.</_>
        <_>
          38 19 3 2 3.</_></rects>
      <tilted>0</tilted></_>
    <_>
      <rects>
        <_>
          36 13 3 3 -1.</_>
        <_>
          37 14 1 1 9.</_></rects>
      <tilted>0</tilted></_>
    <_>
      <rects>
        <_>
          36 25 18 10 -1.</_>
        <_>
          45 25 9 10 2.</_></rects>
      <tilted>0</tilted></_>
    <_>
      <rects>
        <_>
          37 7 3 10 -1.</_>
        <_>
          38 7 1 10 3.</_></rects>
      <tilted>0</tilted></_>
    <_>
      <rects>
        <_>
          38 0 2 36 -1.</_>
        <_>
          38 9 2 18 2.</_></rects>
      <tilted>0</tilted></_>
    <_>
      <rects>
        <_>
          40 0 38 2 -1.</_>
        <_>
          40 1 38 1 2.</_></rects>
      <tilted>0</tilted></_>
    <_>
      <rects>
        <_>
          40 9 2 6 -1.</_>
        <_>
          40 9 1 3 2.</_>
        <_>
          41 12 1 3 2.</_></rects>
      <tilted>0</tilted></_>
    <_>
      <rects>
        <_>
          40 27 12 1 -1.</_>
        <_>
          40 27 6 1 2.</_></rects>
      <tilted>1</tilted></_>
    <_>
      <rects>
        <_>
          41 12 3 1 -1.</_>
        <_>
          42 12 1 1 3.</_></rects>
      <tilted>0</tilted></_>
    <_>
      <rects>
        <_>
          41 23 14 2 -1.</_>
        <_>
          48 23 7 2 2.</_></rects>
      <tilted>0</tilted></_>
    <_>
      <rects>
        <_>
          42 0 20 1 -1.</_>
        <_>
          47 0 10 1 2.</_></rects>
      <tilted>0</tilted></_>
    <_>
      <rects>
        <_>
          42 5 2 20 -1.</_>
        <_>
          43 5 1 20 2.</_></rects>
      <tilted>0</tilted></_>
    <_>
      <rects>
        <_>
          42 9 14 16 -1.</_>
        <_>
          42 17 14 8 2.</_></rects>
      <tilted>0</tilted></_>
    <_>
      <rects>
        <_>
          42 17 2 14 -1.</_>
        <_>
          42 17 1 7 2.</_>
        <_>
          43 24 1 7 2.</_></rects>
      <tilted>0</tilted></_>
    <_>
      <rects>
        <_>
          42 18 38 18 -1.</_>
        <_>
          42 18 19 9 2.</_>
        <_>
          61 27 19 9 2.</_></rects>
      <tilted>0</tilted></_>
    <_>
      <rects>
        <_>
          43 0 17 24 -1.</_>
        <_>
          43 6 17 12 2.</_></rects>
      <tilted>0</tilted></_>
    <_>
      <rects>
        <_>
          43 9 3 3 -1.</_>
        <_>
          44 10 1 1 9.</_></rects>
      <tilted>0</tilted></_>
    <_>
      <rects>
        <_>
          44 6 2 4 -1.</_>
        <_>
          44 7 2 2 2.</_></rects>
      <tilted>0</tilted></_>
    <_>
      <rects>
        <_>
          45 25 12 1 -1.</_>
        <_>
          51 25 6 1 2.</_></rects>
      <tilted>0</tilted></_>
    <_>
      <rects>
        <_>
          46 21 3 2 -1.</_>
        <_>
          47 21 1 2 3.</_></rects>
      <tilted>0</tilted></_>
    <_>
      <rects>
        <_>
          46 22 2 2 -1.</_>
        <_>
          46 22 1 1 2.</_>
        <_>
          47 23 1 1 2.</_></rects>
      <tilted>0</tilted></_>
    <_>
      <rects>
        <_>
          48 1 23 2 -1.</_>
        <_>
          48 1 23 1 2.</_></rects>
      <tilted>1</tilted></_>
    <_>
      <rects>
        <_>
          48 17 24 17 -1.</_>
        <_>
          56 17 8 17 3.</_></rects>
      <tilted>0</tilted></_>
    <_>
      <rects>
        <_>
          49 0 1 24 -1.</_>
        <_>
          43 6 1 12 2.</_></rects>
      <tilted>1</tilted></_>
    <_>
      <rects>
        <_>
          50 2 3 16 -1.</_>
        <_>
          51 3 1 16 3.</_></rects>
      <tilted>1</tilted></_>
    <_>
      <rects>
        <_>
          50 21 2 2 -1.</_>
        <_>
          50 21 1 1 2.</_>
        <_>
          51 22 1 1 2.</_></rects>
      <tilted>0</tilted></_>
    <_>
      <rects>
        <_>
          58 17 6 10 -1.</_>
        <_>
          58 17 3 10 2.</_></rects>
      <tilted>1</tilted></_>
    <_>
      <rects>
        <_>
          64 24 3 3 -1.</_>
        <_>
          65 25 1 1 9.</_></rects>
      <tilted>0</tilted></_>
    <_>
      <rects>
        <_>
          66 1 14 7 -1.</_>
        <_>
          73 1 7 7 2.</_></rects>
      <tilted>0</tilted></_>
    <_>
      <rects>
        <_>
          67 3 7 8 -1.</_>
        <_>
          67 5 7 4 2.</_></rects>
      <tilted>0</tilted></_>
    <_>
      <rects>
        <_>
          68 0 3 9 -1.</_>
        <_>
          69 0 1 9 3.</_></rects>
      <tilted>0</tilted></_>
    <_>
      <rects>
        <_>
          69 26 2 3 -1.</_>
        <_>
          70 26 1 3 2.</_></rects>
      <tilted>0</tilted></_>
    <_>
      <rects>
        <_>
          70 6 9 30 -1.</_>
        <_>
          70 16 9 10 3.</_></rects>
      <tilted>0</tilted></_>
    <_>
      <rects>
        <_>
          72 7 4 8 -1.</_>
        <_>
          74 7 2 8 2.</_></rects>
      <tilted>0</tilted></_>
    <_>
      <rects>
        <_>
          74 17 3 6 -1.</_>
        <_>
          75 17 1 6 3.</_></rects>
      <tilted>0</tilted></_>
    <_>
      <rects>
        <_>
          75 4 3 4 -1.</_>
        <_>
          74 5 3 2 2.</_></rects>
      <tilted>1</tilted></_>
    <_>
      <rects>
        <_>
          75 5 4 4 -1.</_>
        <_>
          75 5 4 2 2.</_></rects>
      <tilted>1</tilted></_>
    <_>
      <rects>
        <_>
          77 14 2 12 -1.</_>
        <_>
          73 18 2 4 3.</_></rects>
      <tilted>1</tilted></_></features></cascade>
</opencv_storage>
